14 100
sentence -0.00053622725 0.00023643016 0.0051033497 0.009009273 -0.0093029495 -0.007116809 0.0064588715 0.008972988 -0.005015428 -0.003763373 0.0073805046 -0.0015334726 -0.0045366143 0.0065540504 -0.0048601604 -0.0018160177 0.0028765798 0.0009918738 -0.008285215 -0.009448819 0.007311766 0.005070262 0.0067576934 0.00076286553 0.0063508893 -0.0034053659 -0.00094640255 0.0057685734 -0.0075216386 -0.003936105 -0.007511582 -0.00093004224 0.009538119 -0.007319167 -0.0023337698 -0.0019377422 0.008077435 -0.005930896 4.5161247e-05 -0.004753735 -0.009603551 0.005007293 -0.008759587 -0.0043918253 -3.5099984e-05 -0.00029618264 -0.00766124 0.009614741 0.0049820566 0.009233143 -0.008157918 0.004495797 -0.0041370774 0.0008245349 0.008498618 -0.004462178 0.0045175003 -0.0067869616 -0.0035484887 0.009398508 -0.0015776539 0.00032137157 -0.00414063 -0.007682688 -0.0015080094 0.0024697948 -0.0008880281 0.0055336617 -0.002742977 0.0022600652 0.0054557943 0.008345952 -0.0014537406 -0.009208143 0.004370551 0.00057178497 0.0074419067 -0.0008132839 -0.0026384138 -0.008753009 -0.0008565569 0.002826562 0.005401428 0.0070526553 -0.005703123 0.0018588186 0.006088862 -0.0047980524 -0.0031072616 0.0067976285 0.0016314745 0.00018991709 0.0034736372 0.0002177763 0.009618826 0.005060604 -0.008917391 -0.0070415614 0.0009014559 0.006392534
the -0.0086196875 0.003665738 0.0051898835 0.005741937 0.007466917 -0.0061676763 0.0011056137 0.0060472824 -0.0028400517 -0.0061735227 -0.000410223 -0.00836895 -0.005600014 0.0071045374 0.0033525396 0.0072256685 0.0068002464 0.007530742 -0.0037891555 -0.00056180713 0.0023483753 -0.0045190332 0.008388732 -0.009858165 0.006764641 0.0029144168 -0.004932833 0.004398186 -0.0017395759 0.006711383 0.00996485 -0.004362445 -0.000599339 -0.0056956387 0.0038508223 0.0027866268 0.0068910765 0.0061010956 0.009538496 0.009273417 0.007898068 -0.006989505 -0.009155865 -0.0003557539 -0.003099842 0.007894316 0.005938573 -0.0015456629 0.0015109634 0.0017900396 0.007817571 -0.009510188 -0.00020553112 0.0034691954 -0.00093897345 0.008381772 0.009010782 0.006536505 -0.00071162224 0.007710404 -0.008534336 0.0032071066 -0.004637997 -0.0050889566 0.0035896183 0.005370338 0.007769513 -0.0057665063 0.0074333595 0.006625495 -0.0037098003 -0.008745641 0.0054374672 0.006509755 -0.0007875514 -0.006709857 -0.0070859264 -0.0024970602 0.0051432536 -0.0036652375 -0.00937006 0.0038267397 0.004884479 -0.0064285635 0.0012085581 -0.0020748782 2.4402141e-05 -0.009883509 0.0026920033 -0.0047501065 0.0010876465 -0.0015762257 0.002196672 -0.007881577 -0.002717185 0.0026631975 0.005346682 -0.0023915148 -0.009510095 0.0045058774
is 9.456396e-05 0.0030773187 -0.0068126465 -0.0013754654 0.007668581 0.0073464084 -0.0036732983 0.0026427007 -0.00831713 0.0062054847 -0.0046373224 -0.003164108 0.009311357 0.0008733845 0.0074907015 -0.006074064 0.005160506 0.009922821 -0.0084573915 -0.0051356913 -0.0070648384 -0.0048626517 -0.003778565 -0.008536201 0.007955606 -0.004843938 0.008423612 0.0052625705 -0.006550026 0.00395787 0.0054701497 -0.007426536 -0.0074057197 -0.0024752307 -0.008625727 -0.0015815735 -0.00040343284 0.0032996845 0.0014418793 -0.00088142155 -0.005594058 0.0017303658 -0.0008973718 0.00679369 0.003973589 0.0045294715 0.0014343048 -0.0026998566 -0.0043668128 -0.0010320758 0.0014370275 -0.00264601 -0.007073784 -0.007805307 -0.009121788 -0.0059351707 -0.0018474245 -0.0043238713 -0.0064606713 -0.0037173224 0.004289157 -0.0037390448 0.008378174 0.0015339922 -0.0072423196 0.0094337985 0.007631211 0.005493281 -0.0068488456 0.0058226776 0.0040090918 0.005185368 0.0042559 0.0019397545 -0.0031701636 0.008353843 0.009612178 0.003792603 -0.002836995 7.126331e-06 0.0012188172 -0.008458326 -0.008223946 -0.00023101569 0.0012372875 -0.005743382 -0.004725275 -0.0073460746 0.008328614 0.00012129784 -0.0045093987 0.005701704 0.009180014 -0.004099872 0.00796468 0.005375433 0.005879123 0.0005125904 0.008213084 -0.0070190406
this -0.008242679 0.009299355 -0.00019766092 -0.0019672776 0.004603629 -0.004095316 0.002743113 0.0069399667 0.006065426 -0.0075107957 0.00938235 0.0046718074 0.003966119 -0.0062435055 0.008459978 -0.002150166 0.008825188 -0.0053620026 -0.008129421 0.0068245577 0.0016711927 -0.00219851 0.0095136 0.009493854 -0.009774048 0.0025052286 0.0061566923 0.0038724565 0.002022786 0.0004305005 0.0006736302 -0.0038206363 -0.0071402504 -0.0020888734 0.0039238976 0.008818683 0.00925915 -0.005975938 -0.009402671 0.009764376 0.0034297847 0.0051661157 0.006282344 -0.0028042626 0.0073227026 0.0028302716 0.0028710032 -0.002380371 -0.0031282497 -0.0023701428 0.0042764354 7.605791e-05 -0.009584279 -0.009665544 -0.0061481954 -0.0001285696 0.001997416 0.0094319675 0.00558435 -0.0042906976 0.00027831554 0.0049643586 0.0076983096 -0.0011442233 0.0043234206 -0.0058143805 -0.00080419064 0.00810005 -0.002360065 -0.009663455 0.0057792594 -0.0039298222 -0.0012228728 0.0099805165 -0.0022563506 -0.004757066 -0.0053293873 0.006980889 -0.0057088733 0.0021136617 -0.005255661 0.006120713 0.0043573068 0.0026063537 -0.0014910841 -0.0027460647 0.008992936 0.0052157734 -0.0021625208 -0.00947031 -0.007426052 -0.0010637427 -0.00079494715 -0.0025629092 0.00968272 -0.00045852186 0.005873761 -0.0074475883 -0.002506075 -0.005549865
final -0.007139015 0.0012410306 -0.0071767163 -0.002244618 0.0037193035 0.005833123 0.0011981821 0.0021027303 -0.0041103913 0.0072253323 -0.0063070417 0.0046472144 -0.008219974 0.0020364665 -0.004977052 -0.004247689 -0.0031089855 0.0056552077 0.0057983994 -0.004974649 0.00077332975 -0.008495779 0.0078098057 0.0092572905 -0.0027423287 0.0008002233 0.0007466507 0.005477884 -0.008606079 0.0005844545 0.006869421 0.0022315932 0.0011246753 -0.009322157 0.008482366 -0.0062641287 -0.0029923748 0.0034937859 -0.00077262876 0.0014112901 0.0017819905 -0.0068288995 -0.009724813 0.009040585 0.0061980532 -0.0069129276 0.0034034825 0.00020606279 0.0047537447 -0.0071199443 0.004026954 0.0043474343 0.0099573685 -0.004473741 -0.0013892651 -0.0073173214 -0.00969783 -0.009080257 -0.0010227561 -0.006503291 0.0048497273 -0.0061640264 0.0025191857 0.0007394409 -0.0033921553 -0.0009792233 0.009979124 0.009145887 -0.0044618296 0.009083025 -0.005641763 0.005930922 -0.0030972194 0.0034317516 0.0030172253 0.006900461 -0.0023738837 0.008775037 0.007589428 -0.009547646 -0.008008211 -0.0076378966 0.0029232574 -0.0027947235 -0.0069295214 -0.008128264 0.008309178 0.0019904876 -0.009328017 -0.0047927164 0.0031367373 -0.004713206 0.005280843 -0.0042334413 0.0026417947 -0.008045687 0.006209886 0.004818888 0.0007871914 0.0030134462
and -0.008727483 0.0021301603 -0.0008735442 -0.009319088 -0.0094281435 -0.001410718 0.0044324086 0.003704071 -0.0064986944 -0.006873069 -0.0049994136 -0.0022868442 -0.0072502876 -0.009603319 -0.0027436304 -0.008362842 -0.006038876 -0.005670929 -0.0023441387 -0.0017069983 -0.0089569995 -0.0007351994 0.008152506 0.0076904297 -0.007206116 -0.0036668323 0.0031185509 -0.0095707225 0.001476438 0.006524465 0.0057464195 -0.008763063 -0.004517145 -0.008140161 4.595518e-05 0.009263632 0.0059733056 0.005067308 0.0050610616 -0.0032429171 0.009552184 -0.0073564244 -0.007270389 -0.002265389 -0.00077856064 -0.0032161046 -0.000592587 0.007488823 -0.0006975198 -0.0016249418 0.002744398 -0.008359101 0.007855804 0.008536103 -0.009584088 0.0024462652 0.009904971 -0.0076658037 -0.00696692 -0.0077365185 0.008395922 -0.0006813359 0.009144409 -0.008158221 0.0037430834 0.0026350426 0.000742712 0.002327676 -0.007469094 -0.009358375 0.0023545765 0.006148455 0.007985687 0.0057358933 -0.0007773375 0.008306164 -0.009336314 0.0034061312 0.00026675223 0.003857243 0.0073857834 -0.0067251683 0.0055844807 -0.009522226 -0.00080446 -0.008688739 -0.0050986744 0.0092892265 -0.001858263 0.0029144264 0.009071278 0.008938131 -0.008208435 -0.0030123137 0.009886606 0.0051044296 -0.0015880871 -0.0086920215 0.0029615164 -0.006675899
more 0.0081322715 -0.0044573355 -0.0010683584 0.0010063648 -0.00019111396 0.0011481761 0.0061138608 -2.0272731e-05 -0.0032459665 -0.0015107298 0.005897298 0.001514101 -0.0007242632 0.009333245 -0.0049212836 -0.00083841087 0.0091754105 0.0067494274 0.0015028549 -0.008882561 0.001148746 -0.0022882556 0.009368236 0.0012099266 0.0014900636 0.0024064088 -0.0018360066 -0.0049996353 0.0002324295 -0.0020141816 0.006600933 0.008940122 -0.00067475555 0.0029770136 -0.0061076544 0.0016993236 -0.006926234 -0.008694027 -0.005900204 -0.008956475 0.0072775935 -0.005772033 0.008276351 -0.0072435453 0.0034216738 0.009674997 -0.007785449 -0.009945059 -0.0043291473 -0.0026831317 -0.00027128935 -0.008831551 -0.0086175585 0.0028002094 -0.0082064085 -0.0090693375 -0.002340467 -0.008631809 -0.007056651 -0.008401151 -0.0003013301 -0.0045642997 0.0066271736 0.0015271592 -0.003341477 0.006108971 -0.0060132863 -0.0046561696 -0.0072075105 -0.004336581 -0.00180933 0.0064896415 -0.002770393 0.0049189664 0.0069044423 -0.0074637057 0.00456485 0.0061269784 -0.0029544758 0.0066250204 0.0061258795 -0.006443486 -0.0067645526 0.0025389576 -0.0016238189 -0.006065128 0.009499209 -0.005130148 -0.0065540983 -0.0001198864 -0.002701428 0.0004444003 -0.0035374593 -0.0004193306 -0.00070861576 0.00082282064 0.008194816 -0.0057367086 -0.0016595292 0.005571606
one 0.00816812 -0.0044430327 0.008985434 0.008253665 -0.004435222 0.00030310394 0.00427449 -0.00392632 -0.0055599664 -0.0065123225 -0.0006707382 -0.00029592274 0.0044630836 -0.0024740554 -0.00017261028 0.0024618744 0.004867599 -3.080845e-05 -0.0063394094 -0.009260807 2.665758e-05 0.0066618943 0.0014660215 -0.008966522 -0.007938605 0.0065519023 -0.0037856817 0.0062549924 -0.006681032 0.008479662 -0.0065163253 0.0032880188 -0.0010569858 -0.006787529 -0.0032875966 -0.0011614132 -0.005470941 -0.0012113475 -0.0075633144 0.0026466583 0.009070149 -0.0023772502 -0.00097651005 0.0035135604 0.008665088 -0.005921853 -0.006887579 -0.0029329848 0.009147696 0.00086626766 -0.008678401 -0.001446979 0.009479466 -0.0075494885 -0.0053581 0.009316561 -0.008973727 0.0038259076 0.0006654406 0.0066607 0.0083127525 -0.0028507852 -0.0039923145 0.008897917 0.002089646 0.0062489416 -0.009445715 0.009590123 -0.0013483096 -0.006052115 0.0029925345 -0.00045661212 0.0047064926 -0.0022830225 -0.0041378425 0.0022778988 0.008354383 -0.004995606 0.0026686788 -0.007990556 -0.006773348 -0.00046766998 -0.008767729 0.0027894378 0.0015985942 -0.0023196936 0.005003791 0.009748786 0.008454268 -0.0018802262 0.0020581507 -0.004003689 -0.008241406 0.0062779547 -0.0019491815 -0.0006662059 -0.0017713332 -0.0045356657 0.004061708 -0.0042701815
another -0.009578547 0.008943114 0.004165068 0.009234734 0.0066435025 0.0029247357 0.00980402 -0.004424641 -0.0068033123 0.0042273807 0.003729 -0.005664611 0.009704759 -0.0035583067 0.009549405 0.0008347249 -0.006338458 -0.001977117 -0.0073770545 -0.0029795242 0.001041696 0.009482686 0.009355848 -0.0065958784 0.003475151 0.0022755694 -0.0024893521 -0.009229174 0.0010271263 -0.008165708 0.006320188 -0.0058000805 0.005535438 0.009833722 -0.00016000033 0.0045284913 -0.0018094016 0.007360761 0.003940096 -0.009010324 -0.002398505 0.003628769 -9.9568366e-05 -0.001201272 -0.0010554385 -0.0016716027 0.0006049514 0.004165094 -0.0042527914 -0.003833623 -5.2816868e-05 0.00026935578 -0.00016880751 -0.0047855065 0.0043134023 -0.0021719194 0.0021035385 0.000666523 0.005969677 -0.006842382 -0.00681571 -0.0044762585 0.009435828 -0.0015918827 -0.009429242 -0.0005450416 -0.004448924 0.006000078 -0.009583686 0.002859001 -0.009252832 0.0012497997 0.005999198 0.0073973467 -0.007621465 -0.0060530235 -0.006838441 -0.007918341 -0.0094990805 -0.002125497 -0.00083593366 -0.007256203 0.0067870356 0.0011196184 0.0058288667 0.0014728665 0.0007893658 -0.0073681306 -0.0021766592 0.0043210792 -0.0050853156 0.0011307884 0.0028833628 -0.0015363622 0.009932294 0.008349633 0.0024156666 0.007118244 0.0058914376 -0.0055806185
yet -0.005157556 -0.006667739 -0.0077768103 0.008312176 -0.0019817357 -0.006855022 -0.0041535595 0.00514393 -0.0028700258 -0.0037494104 0.0016219153 -0.0027770554 -0.0015834016 0.0010741659 -0.0029770795 0.008519837 0.0039104656 -0.0099596195 0.0062591457 -0.0067549446 0.0007695858 0.004405496 -0.005102646 -0.0021114952 0.0080962945 -0.00424378 -0.0076369457 0.009257424 -0.002155504 -0.004720571 0.008571948 0.004282946 0.004325669 0.009286079 -0.008453558 0.0052560945 0.002039268 0.0041893013 0.0016984172 0.0044634053 0.0044862754 0.0061052456 -0.0032022828 -0.0045761084 -0.00042665348 0.002533692 -0.003263281 0.006058497 0.0041538975 0.0077646025 0.0025694068 0.008117152 -0.0013873037 0.0080778515 0.003717682 -0.008047998 -0.0039336034 -0.0024719415 0.004893953 -0.00087294367 -0.0028317969 0.007833652 0.009324425 -0.0016151877 -0.0051605464 -0.004702075 -0.0048467945 -0.009602703 0.0013710627 -0.0042248378 0.0025258488 0.0056149242 -0.0040654824 -0.009596308 0.0015459609 -0.0067011397 0.0024945738 -0.0037816912 0.0070777843 0.0006400266 0.003561043 -0.0027400649 -0.0017099106 0.007653331 0.0014083828 -0.005850609 -0.007834839 0.0012319596 0.006454747 0.005557118 -0.008978088 0.008592755 0.004047508 0.0074698455 0.009747936 -0.0072890795 -0.0090401955 0.0058370857 0.009392359 0.0035065152
second 0.007088797 -0.0015679311 0.007947497 -0.009488659 -0.008029499 -0.0066403723 -0.004003456 0.004989216 -0.0038135601 -0.008319905 0.008411777 -0.0037470032 0.008608696 -0.0048957514 0.003918593 0.0049220156 0.0023926091 -0.0028188038 0.0028491234 -0.008256238 -0.002765541 -0.0025911594 0.0072490047 -0.0034634043 -0.006599703 0.004340427 -0.00047448635 -0.0035975575 0.006882472 0.0038723112 -0.0039002013 0.0007718873 0.009143502 0.007754655 0.0063618706 0.004667301 0.0023844885 -0.0018416261 -0.006371293 -0.0003018117 -0.0015653897 -0.0005722857 -0.0062628724 0.0074340464 -0.006591494 -0.0072392775 -0.0027571463 -0.0015154004 -0.0076357173 0.0006982398 -0.0053261113 -0.0012755442 -0.007365112 0.0019605684 0.0032731986 -2.3138524e-05 -0.005448358 -0.0017260861 0.0070849154 0.0037362576 -0.008881049 -0.0034135508 0.0023541022 0.0021380186 -0.009464009 0.004571166 -0.008656997 -0.007387068 0.003483112 -0.0034709596 0.0035644697 0.008894091 -0.0035743236 0.009320424 0.0017110371 0.009847774 0.005705042 -0.009149484 -0.003327732 0.006530175 0.0056027793 0.008705515 0.0069261026 0.008038888 -0.00982301 0.0042988253 -0.0050300765 0.0035123848 0.006056688 0.0043921303 0.0075123594 0.0014977145 -0.0012649416 0.005768399 -0.0056395675 3.859043e-05 0.009456587 -0.00548125 0.0038142777 -0.008113022
word2vec 0.009770293 0.008165114 0.0012809705 0.0050975773 0.0014081288 -0.0064551616 -0.001428051 0.0064491653 -0.0046173073 -0.0039930656 0.0049244044 0.0027130984 -0.0018479753 -0.0028769446 0.0060107303 -0.0057167388 -0.0032367038 -0.006487825 -0.0042346334 -0.008580995 -0.0044697905 -0.008511231 0.0014037776 -0.008618197 -0.009916656 -0.008201625 -0.006772666 0.006680584 0.0037845564 0.00035616636 -0.002957983 -0.007428322 0.0005334187 0.0004998922 0.00019561767 0.0008525944 0.0007863307 -6.816149e-05 -0.008007054 -0.0058702733 -0.008382912 -0.0013120436 0.0018206357 0.007417128 -0.001963427 -0.0023252917 0.009487155 7.970333e-05 -0.0024045228 0.008604846 0.0026870037 -0.0053439736 0.006588106 0.004510152 -0.007054467 -0.000323174 0.0008344865 0.0057473565 -0.0017176557 -0.00280653 0.0017484308 0.00084717036 0.0011928272 -0.0026342822 -0.0059857843 0.007322984 0.0075873756 0.008296357 -0.008598847 0.0026364254 -0.0035599638 0.009620404 0.0029037667 0.0046411133 0.002385614 0.006608477 -0.005743291 0.007894411 -0.002410922 -0.0045618867 -0.0020609903 0.009733558 -0.006856592 -0.00219172 0.0070009995 -5.5749417e-05 -0.006294968 -0.0063935257 0.008940394 0.0064295745 0.004773593 -0.0032620477 -0.009267621 0.0037868882 0.007160549 -0.0056328895 -0.0078650145 -0.0029727411 -0.0049318983 -0.0023151112
for -0.0019442177 -0.0052675223 0.009447112 -0.0092987325 0.0045039463 0.0054041767 -0.0014092636 0.009007092 0.009885359 -0.0054750443 -0.0060210014 -0.006746974 -0.007894883 -0.0030479168 -0.005594027 -0.008344681 0.00078290224 0.0029946566 0.0064147427 -0.002628951 -0.004453478 0.0012495709 0.00039146186 0.008116999 0.00018280029 0.007231586 -0.008264516 0.008433535 -0.0018889094 0.008701153 -0.007616837 0.0017963862 0.0010564852 4.600525e-05 -0.005103254 -0.009247699 -0.0072642183 -0.007951174 0.0019137263 0.00047846555 -0.0018131376 0.007120166 -0.0024756931 -0.0013473105 -0.008900564 -0.009925413 0.008949396 -0.005753939 -0.0063729975 0.0051994063 0.0066699935 -0.0068316413 0.00095975876 -0.0060084746 0.0016473436 -0.0042892788 -0.0034407973 0.0021856665 0.0086615775 0.0067281104 -0.009677057 -0.0056221057 0.007880333 0.0019893574 -0.004256053 0.0005988121 0.00952096 -0.0011027169 -0.009424639 0.0016084099 0.006232355 0.00628237 0.004091649 -0.005650239 -0.00037069322 -5.531788e-05 0.0045717955 -0.0080415895 -0.00801831 0.0002647495 -0.0086083 0.005820155 -0.00041781188 0.009971177 -0.0053439783 -0.00048614026 0.007756772 -0.0040679337 -0.0050159004 0.0015900708 0.0026506924 -0.0025649595 0.0064475276 -0.0076599526 0.0033935595 0.0004899693 0.008732183 0.005982714 0.006815362 0.007822544
first -0.00950012 0.009562223 -0.0077707553 -0.0026455093 -0.004906409 -0.0049666977 -0.008023591 -0.0077835848 -0.0045532132 -0.0012753629 -0.0051029897 0.006140542 -0.009516621 -0.0053071044 0.009437151 0.006991329 0.0076758144 0.004234738 0.00050709245 -0.005981145 0.006018777 0.0026350308 0.0076994323 0.006393843 0.007942569 0.008657405 -0.009895756 -0.006755705 0.0013375735 0.0064403033 0.0073738145 0.00551698 0.007661624 -0.005125568 0.006584408 -0.004108374 -0.0090553425 0.009141679 0.0013314033 -0.0027596809 -0.0024778438 -0.0042204787 0.004812336 0.004400222 -0.0026533627 -0.007341881 -0.0035658525 -0.00033661604 0.006095891 -0.0028373385 -0.00012089491 0.00087972643 -0.0070956494 0.0020650006 -0.0014324236 0.0028021478 0.0048422217 -0.0013520193 -0.002780144 0.0077386475 0.0050455974 0.0067135217 0.004515643 0.008667154 0.007474968 -0.0010818887 0.008747637 0.004601717 0.0054406333 -0.0013860846 -0.0020413185 -0.0044243457 -0.008515198 0.003037727 0.008883192 0.008919742 -0.0019423557 0.0060861562 0.0037797235 -0.0042959666 0.002042923 -0.005437887 0.008208892 0.0054329084 0.003184433 0.0041025686 0.00865715 0.0072720335 -0.0008334732 -0.007072768 0.008380473 0.007233584 0.0017304707 -0.0013474918 -0.005890093 -0.0045330906 0.008647966 -0.0031351089 -0.0063388203 0.009870077
